digraph Tree {
node [shape=box, style="filled", color="black"] ;
0 [label="glucose <= 129.5\ngini = 0.449\nsamples = 537\nvalue = [354, 183]\nclass = NoDiabetis", fillcolor="#f2c29f"] ;
1 [label="bmi <= 26.3\ngini = 0.329\nsamples = 357\nvalue = [283, 74]\nclass = NoDiabetis", fillcolor="#eca26d"] ;
0 -> 1 [labeldistance=2.5, labelangle=45, headlabel="True"] ;
2 [label="bmi <= 9.1\ngini = 0.06\nsamples = 97\nvalue = [94, 3]\nclass = NoDiabetis", fillcolor="#e6853f"] ;
1 -> 2 ;
3 [label="pregnant <= 7.5\ngini = 0.444\nsamples = 6\nvalue = [4, 2]\nclass = NoDiabetis", fillcolor="#f2c09c"] ;
2 -> 3 ;
4 [label="gini = 0.0\nsamples = 4\nvalue = [4, 0]\nclass = NoDiabetis", fillcolor="#e58139"] ;
3 -> 4 ;
5 [label="gini = 0.0\nsamples = 2\nvalue = [0, 2]\nclass = Diabetis", fillcolor="#399de5"] ;
3 -> 5 ;
6 [label="pedigree <= 0.669\ngini = 0.022\nsamples = 91\nvalue = [90, 1]\nclass = NoDiabetis", fillcolor="#e5823b"] ;
2 -> 6 ;
7 [label="gini = 0.0\nsamples = 76\nvalue = [76, 0]\nclass = NoDiabetis", fillcolor="#e58139"] ;
6 -> 7 ;
8 [label="pedigree <= 0.705\ngini = 0.124\nsamples = 15\nvalue = [14, 1]\nclass = NoDiabetis", fillcolor="#e78a47"] ;
6 -> 8 ;
9 [label="gini = 0.0\nsamples = 1\nvalue = [0, 1]\nclass = Diabetis", fillcolor="#399de5"] ;
8 -> 9 ;
10 [label="gini = 0.0\nsamples = 14\nvalue = [14, 0]\nclass = NoDiabetis", fillcolor="#e58139"] ;
8 -> 10 ;
11 [label="age <= 27.5\ngini = 0.397\nsamples = 260\nvalue = [189, 71]\nclass = NoDiabetis", fillcolor="#efb083"] ;
1 -> 11 ;
12 [label="bmi <= 45.4\ngini = 0.243\nsamples = 120\nvalue = [103, 17]\nclass = NoDiabetis", fillcolor="#e9965a"] ;
11 -> 12 ;
13 [label="bp <= 12.0\ngini = 0.212\nsamples = 116\nvalue = [102, 14]\nclass = NoDiabetis", fillcolor="#e99254"] ;
12 -> 13 ;
14 [label="gini = 0.0\nsamples = 1\nvalue = [0, 1]\nclass = Diabetis", fillcolor="#399de5"] ;
13 -> 14 ;
15 [label="pregnant <= 7.0\ngini = 0.201\nsamples = 115\nvalue = [102, 13]\nclass = NoDiabetis", fillcolor="#e89152"] ;
13 -> 15 ;
16 [label="pedigree <= 1.272\ngini = 0.188\nsamples = 114\nvalue = [102, 12]\nclass = NoDiabetis", fillcolor="#e89050"] ;
15 -> 16 ;
17 [label="bmi <= 30.95\ngini = 0.165\nsamples = 110\nvalue = [100, 10]\nclass = NoDiabetis", fillcolor="#e88e4d"] ;
16 -> 17 ;
18 [label="gini = 0.0\nsamples = 43\nvalue = [43, 0]\nclass = NoDiabetis", fillcolor="#e58139"] ;
17 -> 18 ;
19 [label="bp <= 53.0\ngini = 0.254\nsamples = 67\nvalue = [57, 10]\nclass = NoDiabetis", fillcolor="#ea975c"] ;
17 -> 19 ;
20 [label="pedigree <= 0.264\ngini = 0.5\nsamples = 6\nvalue = [3, 3]\nclass = NoDiabetis", fillcolor="#ffffff"] ;
19 -> 20 ;
21 [label="gini = 0.0\nsamples = 2\nvalue = [0, 2]\nclass = Diabetis", fillcolor="#399de5"] ;
20 -> 21 ;
22 [label="glucose <= 125.5\ngini = 0.375\nsamples = 4\nvalue = [3, 1]\nclass = NoDiabetis", fillcolor="#eeab7b"] ;
20 -> 22 ;
23 [label="gini = 0.0\nsamples = 3\nvalue = [3, 0]\nclass = NoDiabetis", fillcolor="#e58139"] ;
22 -> 23 ;
24 [label="gini = 0.0\nsamples = 1\nvalue = [0, 1]\nclass = Diabetis", fillcolor="#399de5"] ;
22 -> 24 ;
25 [label="pedigree <= 0.652\ngini = 0.203\nsamples = 61\nvalue = [54, 7]\nclass = NoDiabetis", fillcolor="#e89153"] ;
19 -> 25 ;
26 [label="insulin <= 36.5\ngini = 0.15\nsamples = 49\nvalue = [45, 4]\nclass = NoDiabetis", fillcolor="#e78c4b"] ;
25 -> 26 ;
27 [label="insulin <= 34.0\ngini = 0.32\nsamples = 20\nvalue = [16, 4]\nclass = NoDiabetis", fillcolor="#eca06a"] ;
26 -> 27 ;
28 [label="glucose <= 111.5\ngini = 0.266\nsamples = 19\nvalue = [16, 3]\nclass = NoDiabetis", fillcolor="#ea995e"] ;
27 -> 28 ;
29 [label="bmi <= 37.95\ngini = 0.142\nsamples = 13\nvalue = [12, 1]\nclass = NoDiabetis", fillcolor="#e78c49"] ;
28 -> 29 ;
30 [label="gini = 0.0\nsamples = 11\nvalue = [11, 0]\nclass = NoDiabetis", fillcolor="#e58139"] ;
29 -> 30 ;
31 [label="insulin <= 9.0\ngini = 0.5\nsamples = 2\nvalue = [1, 1]\nclass = NoDiabetis", fillcolor="#ffffff"] ;
29 -> 31 ;
32 [label="gini = 0.0\nsamples = 1\nvalue = [0, 1]\nclass = Diabetis", fillcolor="#399de5"] ;
31 -> 32 ;
33 [label="gini = 0.0\nsamples = 1\nvalue = [1, 0]\nclass = NoDiabetis", fillcolor="#e58139"] ;
31 -> 33 ;
34 [label="bp <= 72.0\ngini = 0.444\nsamples = 6\nvalue = [4, 2]\nclass = NoDiabetis", fillcolor="#f2c09c"] ;
28 -> 34 ;
35 [label="gini = 0.0\nsamples = 3\nvalue = [3, 0]\nclass = NoDiabetis", fillcolor="#e58139"] ;
34 -> 35 ;
36 [label="pedigree <= 0.172\ngini = 0.444\nsamples = 3\nvalue = [1, 2]\nclass = Diabetis", fillcolor="#9ccef2"] ;
34 -> 36 ;
37 [label="gini = 0.0\nsamples = 1\nvalue = [1, 0]\nclass = NoDiabetis", fillcolor="#e58139"] ;
36 -> 37 ;
38 [label="gini = 0.0\nsamples = 2\nvalue = [0, 2]\nclass = Diabetis", fillcolor="#399de5"] ;
36 -> 38 ;
39 [label="gini = 0.0\nsamples = 1\nvalue = [0, 1]\nclass = Diabetis", fillcolor="#399de5"] ;
27 -> 39 ;
40 [label="gini = 0.0\nsamples = 29\nvalue = [29, 0]\nclass = NoDiabetis", fillcolor="#e58139"] ;
26 -> 40 ;
41 [label="insulin <= 65.5\ngini = 0.375\nsamples = 12\nvalue = [9, 3]\nclass = NoDiabetis", fillcolor="#eeab7b"] ;
25 -> 41 ;
42 [label="gini = 0.0\nsamples = 7\nvalue = [7, 0]\nclass = NoDiabetis", fillcolor="#e58139"] ;
41 -> 42 ;
43 [label="bmi <= 38.55\ngini = 0.48\nsamples = 5\nvalue = [2, 3]\nclass = Diabetis", fillcolor="#bddef6"] ;
41 -> 43 ;
44 [label="gini = 0.0\nsamples = 3\nvalue = [0, 3]\nclass = Diabetis", fillcolor="#399de5"] ;
43 -> 44 ;
45 [label="gini = 0.0\nsamples = 2\nvalue = [2, 0]\nclass = NoDiabetis", fillcolor="#e58139"] ;
43 -> 45 ;
46 [label="pedigree <= 1.496\ngini = 0.5\nsamples = 4\nvalue = [2, 2]\nclass = NoDiabetis", fillcolor="#ffffff"] ;
16 -> 46 ;
47 [label="gini = 0.0\nsamples = 2\nvalue = [0, 2]\nclass = Diabetis", fillcolor="#399de5"] ;
46 -> 47 ;
48 [label="gini = 0.0\nsamples = 2\nvalue = [2, 0]\nclass = NoDiabetis", fillcolor="#e58139"] ;
46 -> 48 ;
49 [label="gini = 0.0\nsamples = 1\nvalue = [0, 1]\nclass = Diabetis", fillcolor="#399de5"] ;
15 -> 49 ;
50 [label="insulin <= 185.0\ngini = 0.375\nsamples = 4\nvalue = [1, 3]\nclass = Diabetis", fillcolor="#7bbeee"] ;
12 -> 50 ;
51 [label="gini = 0.0\nsamples = 3\nvalue = [0, 3]\nclass = Diabetis", fillcolor="#399de5"] ;
50 -> 51 ;
52 [label="gini = 0.0\nsamples = 1\nvalue = [1, 0]\nclass = NoDiabetis", fillcolor="#e58139"] ;
50 -> 52 ;
53 [label="pedigree <= 0.563\ngini = 0.474\nsamples = 140\nvalue = [86, 54]\nclass = NoDiabetis", fillcolor="#f5d0b5"] ;
11 -> 53 ;
54 [label="glucose <= 101.5\ngini = 0.408\nsamples = 98\nvalue = [70, 28]\nclass = NoDiabetis", fillcolor="#efb388"] ;
53 -> 54 ;
55 [label="bp <= 27.0\ngini = 0.208\nsamples = 34\nvalue = [30, 4]\nclass = NoDiabetis", fillcolor="#e89253"] ;
54 -> 55 ;
56 [label="gini = 0.0\nsamples = 1\nvalue = [0, 1]\nclass = Diabetis", fillcolor="#399de5"] ;
55 -> 56 ;
57 [label="age <= 42.5\ngini = 0.165\nsamples = 33\nvalue = [30, 3]\nclass = NoDiabetis", fillcolor="#e88e4d"] ;
55 -> 57 ;
58 [label="gini = 0.0\nsamples = 23\nvalue = [23, 0]\nclass = NoDiabetis", fillcolor="#e58139"] ;
57 -> 58 ;
59 [label="pedigree <= 0.383\ngini = 0.42\nsamples = 10\nvalue = [7, 3]\nclass = NoDiabetis", fillcolor="#f0b78e"] ;
57 -> 59 ;
60 [label="pedigree <= 0.214\ngini = 0.5\nsamples = 6\nvalue = [3, 3]\nclass = NoDiabetis", fillcolor="#ffffff"] ;
59 -> 60 ;
61 [label="gini = 0.0\nsamples = 2\nvalue = [2, 0]\nclass = NoDiabetis", fillcolor="#e58139"] ;
60 -> 61 ;
62 [label="glucose <= 76.0\ngini = 0.375\nsamples = 4\nvalue = [1, 3]\nclass = Diabetis", fillcolor="#7bbeee"] ;
60 -> 62 ;
63 [label="gini = 0.0\nsamples = 1\nvalue = [1, 0]\nclass = NoDiabetis", fillcolor="#e58139"] ;
62 -> 63 ;
64 [label="gini = 0.0\nsamples = 3\nvalue = [0, 3]\nclass = Diabetis", fillcolor="#399de5"] ;
62 -> 64 ;
65 [label="gini = 0.0\nsamples = 4\nvalue = [4, 0]\nclass = NoDiabetis", fillcolor="#e58139"] ;
59 -> 65 ;
66 [label="bp <= 67.0\ngini = 0.469\nsamples = 64\nvalue = [40, 24]\nclass = NoDiabetis", fillcolor="#f5cdb0"] ;
54 -> 66 ;
67 [label="bp <= 58.0\ngini = 0.465\nsamples = 19\nvalue = [7, 12]\nclass = Diabetis", fillcolor="#acd6f4"] ;
66 -> 67 ;
68 [label="bmi <= 30.05\ngini = 0.245\nsamples = 7\nvalue = [6, 1]\nclass = NoDiabetis", fillcolor="#e9965a"] ;
67 -> 68 ;
69 [label="bmi <= 29.15\ngini = 0.5\nsamples = 2\nvalue = [1, 1]\nclass = NoDiabetis", fillcolor="#ffffff"] ;
68 -> 69 ;
70 [label="gini = 0.0\nsamples = 1\nvalue = [1, 0]\nclass = NoDiabetis", fillcolor="#e58139"] ;
69 -> 70 ;
71 [label="gini = 0.0\nsamples = 1\nvalue = [0, 1]\nclass = Diabetis", fillcolor="#399de5"] ;
69 -> 71 ;
72 [label="gini = 0.0\nsamples = 5\nvalue = [5, 0]\nclass = NoDiabetis", fillcolor="#e58139"] ;
68 -> 72 ;
73 [label="pedigree <= 0.425\ngini = 0.153\nsamples = 12\nvalue = [1, 11]\nclass = Diabetis", fillcolor="#4ba6e7"] ;
67 -> 73 ;
74 [label="gini = 0.0\nsamples = 11\nvalue = [0, 11]\nclass = Diabetis", fillcolor="#399de5"] ;
73 -> 74 ;
75 [label="gini = 0.0\nsamples = 1\nvalue = [1, 0]\nclass = NoDiabetis", fillcolor="#e58139"] ;
73 -> 75 ;
76 [label="bmi <= 43.1\ngini = 0.391\nsamples = 45\nvalue = [33, 12]\nclass = NoDiabetis", fillcolor="#eeaf81"] ;
66 -> 76 ;
77 [label="glucose <= 102.5\ngini = 0.337\nsamples = 42\nvalue = [33, 9]\nclass = NoDiabetis", fillcolor="#eca36f"] ;
76 -> 77 ;
78 [label="gini = 0.0\nsamples = 2\nvalue = [0, 2]\nclass = Diabetis", fillcolor="#399de5"] ;
77 -> 78 ;
79 [label="bmi <= 34.6\ngini = 0.289\nsamples = 40\nvalue = [33, 7]\nclass = NoDiabetis", fillcolor="#eb9c63"] ;
77 -> 79 ;
80 [label="age <= 35.0\ngini = 0.434\nsamples = 22\nvalue = [15, 7]\nclass = NoDiabetis", fillcolor="#f1bc95"] ;
79 -> 80 ;
81 [label="gini = 0.0\nsamples = 6\nvalue = [6, 0]\nclass = NoDiabetis", fillcolor="#e58139"] ;
80 -> 81 ;
82 [label="glucose <= 123.5\ngini = 0.492\nsamples = 16\nvalue = [9, 7]\nclass = NoDiabetis", fillcolor="#f9e3d3"] ;
80 -> 82 ;
83 [label="pedigree <= 0.375\ngini = 0.426\nsamples = 13\nvalue = [9, 4]\nclass = NoDiabetis", fillcolor="#f1b991"] ;
82 -> 83 ;
84 [label="pedigree <= 0.258\ngini = 0.298\nsamples = 11\nvalue = [9, 2]\nclass = NoDiabetis", fillcolor="#eb9d65"] ;
83 -> 84 ;
85 [label="gini = 0.0\nsamples = 5\nvalue = [5, 0]\nclass = NoDiabetis", fillcolor="#e58139"] ;
84 -> 85 ;
86 [label="bmi <= 32.0\ngini = 0.444\nsamples = 6\nvalue = [4, 2]\nclass = NoDiabetis", fillcolor="#f2c09c"] ;
84 -> 86 ;
87 [label="glucose <= 118.0\ngini = 0.444\nsamples = 3\nvalue = [1, 2]\nclass = Diabetis", fillcolor="#9ccef2"] ;
86 -> 87 ;
88 [label="gini = 0.0\nsamples = 2\nvalue = [0, 2]\nclass = Diabetis", fillcolor="#399de5"] ;
87 -> 88 ;
89 [label="gini = 0.0\nsamples = 1\nvalue = [1, 0]\nclass = NoDiabetis", fillcolor="#e58139"] ;
87 -> 89 ;
90 [label="gini = 0.0\nsamples = 3\nvalue = [3, 0]\nclass = NoDiabetis", fillcolor="#e58139"] ;
86 -> 90 ;
91 [label="gini = 0.0\nsamples = 2\nvalue = [0, 2]\nclass = Diabetis", fillcolor="#399de5"] ;
83 -> 91 ;
92 [label="gini = 0.0\nsamples = 3\nvalue = [0, 3]\nclass = Diabetis", fillcolor="#399de5"] ;
82 -> 92 ;
93 [label="gini = 0.0\nsamples = 18\nvalue = [18, 0]\nclass = NoDiabetis", fillcolor="#e58139"] ;
79 -> 93 ;
94 [label="gini = 0.0\nsamples = 3\nvalue = [0, 3]\nclass = Diabetis", fillcolor="#399de5"] ;
76 -> 94 ;
95 [label="pregnant <= 8.5\ngini = 0.472\nsamples = 42\nvalue = [16, 26]\nclass = Diabetis", fillcolor="#b3d9f5"] ;
53 -> 95 ;
96 [label="bp <= 87.0\ngini = 0.5\nsamples = 33\nvalue = [16, 17]\nclass = Diabetis", fillcolor="#f3f9fd"] ;
95 -> 96 ;
97 [label="glucose <= 97.0\ngini = 0.477\nsamples = 28\nvalue = [11, 17]\nclass = Diabetis", fillcolor="#b9dcf6"] ;
96 -> 97 ;
98 [label="gini = 0.0\nsamples = 4\nvalue = [4, 0]\nclass = NoDiabetis", fillcolor="#e58139"] ;
97 -> 98 ;
99 [label="glucose <= 116.5\ngini = 0.413\nsamples = 24\nvalue = [7, 17]\nclass = Diabetis", fillcolor="#8bc5f0"] ;
97 -> 99 ;
100 [label="pedigree <= 1.395\ngini = 0.165\nsamples = 11\nvalue = [1, 10]\nclass = Diabetis", fillcolor="#4da7e8"] ;
99 -> 100 ;
101 [label="gini = 0.0\nsamples = 10\nvalue = [0, 10]\nclass = Diabetis", fillcolor="#399de5"] ;
100 -> 101 ;
102 [label="gini = 0.0\nsamples = 1\nvalue = [1, 0]\nclass = NoDiabetis", fillcolor="#e58139"] ;
100 -> 102 ;
103 [label="insulin <= 78.0\ngini = 0.497\nsamples = 13\nvalue = [6, 7]\nclass = Diabetis", fillcolor="#e3f1fb"] ;
99 -> 103 ;
104 [label="gini = 0.0\nsamples = 3\nvalue = [3, 0]\nclass = NoDiabetis", fillcolor="#e58139"] ;
103 -> 104 ;
105 [label="glucose <= 123.5\ngini = 0.42\nsamples = 10\nvalue = [3, 7]\nclass = Diabetis", fillcolor="#8ec7f0"] ;
103 -> 105 ;
106 [label="age <= 33.5\ngini = 0.5\nsamples = 6\nvalue = [3, 3]\nclass = NoDiabetis", fillcolor="#ffffff"] ;
105 -> 106 ;
107 [label="age <= 28.5\ngini = 0.375\nsamples = 4\nvalue = [1, 3]\nclass = Diabetis", fillcolor="#7bbeee"] ;
106 -> 107 ;
108 [label="gini = 0.0\nsamples = 1\nvalue = [1, 0]\nclass = NoDiabetis", fillcolor="#e58139"] ;
107 -> 108 ;
109 [label="gini = 0.0\nsamples = 3\nvalue = [0, 3]\nclass = Diabetis", fillcolor="#399de5"] ;
107 -> 109 ;
110 [label="gini = 0.0\nsamples = 2\nvalue = [2, 0]\nclass = NoDiabetis", fillcolor="#e58139"] ;
106 -> 110 ;
111 [label="gini = 0.0\nsamples = 4\nvalue = [0, 4]\nclass = Diabetis", fillcolor="#399de5"] ;
105 -> 111 ;
112 [label="gini = 0.0\nsamples = 5\nvalue = [5, 0]\nclass = NoDiabetis", fillcolor="#e58139"] ;
96 -> 112 ;
113 [label="gini = 0.0\nsamples = 9\nvalue = [0, 9]\nclass = Diabetis", fillcolor="#399de5"] ;
95 -> 113 ;
114 [label="bmi <= 27.85\ngini = 0.478\nsamples = 180\nvalue = [71, 109]\nclass = Diabetis", fillcolor="#baddf6"] ;
0 -> 114 [labeldistance=2.5, labelangle=-45, headlabel="False"] ;
115 [label="glucose <= 145.5\ngini = 0.375\nsamples = 36\nvalue = [27, 9]\nclass = NoDiabetis", fillcolor="#eeab7b"] ;
114 -> 115 ;
116 [label="age <= 59.5\ngini = 0.1\nsamples = 19\nvalue = [18, 1]\nclass = NoDiabetis", fillcolor="#e68844"] ;
115 -> 116 ;
117 [label="gini = 0.0\nsamples = 16\nvalue = [16, 0]\nclass = NoDiabetis", fillcolor="#e58139"] ;
116 -> 117 ;
118 [label="bmi <= 25.25\ngini = 0.444\nsamples = 3\nvalue = [2, 1]\nclass = NoDiabetis", fillcolor="#f2c09c"] ;
116 -> 118 ;
119 [label="gini = 0.0\nsamples = 1\nvalue = [0, 1]\nclass = Diabetis", fillcolor="#399de5"] ;
118 -> 119 ;
120 [label="gini = 0.0\nsamples = 2\nvalue = [2, 0]\nclass = NoDiabetis", fillcolor="#e58139"] ;
118 -> 120 ;
121 [label="bmi <= 23.1\ngini = 0.498\nsamples = 17\nvalue = [9, 8]\nclass = NoDiabetis", fillcolor="#fcf1e9"] ;
115 -> 121 ;
122 [label="gini = 0.0\nsamples = 3\nvalue = [3, 0]\nclass = NoDiabetis", fillcolor="#e58139"] ;
121 -> 122 ;
123 [label="bmi <= 25.55\ngini = 0.49\nsamples = 14\nvalue = [6, 8]\nclass = Diabetis", fillcolor="#cee6f8"] ;
121 -> 123 ;
124 [label="gini = 0.0\nsamples = 6\nvalue = [0, 6]\nclass = Diabetis", fillcolor="#399de5"] ;
123 -> 124 ;
125 [label="glucose <= 156.0\ngini = 0.375\nsamples = 8\nvalue = [6, 2]\nclass = NoDiabetis", fillcolor="#eeab7b"] ;
123 -> 125 ;
126 [label="gini = 0.0\nsamples = 2\nvalue = [0, 2]\nclass = Diabetis", fillcolor="#399de5"] ;
125 -> 126 ;
127 [label="gini = 0.0\nsamples = 6\nvalue = [6, 0]\nclass = NoDiabetis", fillcolor="#e58139"] ;
125 -> 127 ;
128 [label="glucose <= 158.5\ngini = 0.424\nsamples = 144\nvalue = [44, 100]\nclass = Diabetis", fillcolor="#90c8f0"] ;
114 -> 128 ;
129 [label="age <= 30.5\ngini = 0.487\nsamples = 88\nvalue = [37, 51]\nclass = Diabetis", fillcolor="#c9e4f8"] ;
128 -> 129 ;
130 [label="bp <= 23.0\ngini = 0.49\nsamples = 42\nvalue = [24, 18]\nclass = NoDiabetis", fillcolor="#f8e0ce"] ;
129 -> 130 ;
131 [label="gini = 0.0\nsamples = 4\nvalue = [0, 4]\nclass = Diabetis", fillcolor="#399de5"] ;
130 -> 131 ;
132 [label="bp <= 88.0\ngini = 0.465\nsamples = 38\nvalue = [24, 14]\nclass = NoDiabetis", fillcolor="#f4caac"] ;
130 -> 132 ;
133 [label="bp <= 72.0\ngini = 0.444\nsamples = 36\nvalue = [24, 12]\nclass = NoDiabetis", fillcolor="#f2c09c"] ;
132 -> 133 ;
134 [label="bmi <= 33.75\ngini = 0.5\nsamples = 20\nvalue = [10, 10]\nclass = NoDiabetis", fillcolor="#ffffff"] ;
133 -> 134 ;
135 [label="bmi <= 31.05\ngini = 0.397\nsamples = 11\nvalue = [8, 3]\nclass = NoDiabetis", fillcolor="#efb083"] ;
134 -> 135 ;
136 [label="insulin <= 229.0\ngini = 0.5\nsamples = 6\nvalue = [3, 3]\nclass = NoDiabetis", fillcolor="#ffffff"] ;
135 -> 136 ;
137 [label="bp <= 67.0\ngini = 0.375\nsamples = 4\nvalue = [3, 1]\nclass = NoDiabetis", fillcolor="#eeab7b"] ;
136 -> 137 ;
138 [label="gini = 0.0\nsamples = 3\nvalue = [3, 0]\nclass = NoDiabetis", fillcolor="#e58139"] ;
137 -> 138 ;
139 [label="gini = 0.0\nsamples = 1\nvalue = [0, 1]\nclass = Diabetis", fillcolor="#399de5"] ;
137 -> 139 ;
140 [label="gini = 0.0\nsamples = 2\nvalue = [0, 2]\nclass = Diabetis", fillcolor="#399de5"] ;
136 -> 140 ;
141 [label="gini = 0.0\nsamples = 5\nvalue = [5, 0]\nclass = NoDiabetis", fillcolor="#e58139"] ;
135 -> 141 ;
142 [label="pedigree <= 0.535\ngini = 0.346\nsamples = 9\nvalue = [2, 7]\nclass = Diabetis", fillcolor="#72b9ec"] ;
134 -> 142 ;
143 [label="gini = 0.0\nsamples = 6\nvalue = [0, 6]\nclass = Diabetis", fillcolor="#399de5"] ;
142 -> 143 ;
144 [label="age <= 28.5\ngini = 0.444\nsamples = 3\nvalue = [2, 1]\nclass = NoDiabetis", fillcolor="#f2c09c"] ;
142 -> 144 ;
145 [label="gini = 0.0\nsamples = 2\nvalue = [2, 0]\nclass = NoDiabetis", fillcolor="#e58139"] ;
144 -> 145 ;
146 [label="gini = 0.0\nsamples = 1\nvalue = [0, 1]\nclass = Diabetis", fillcolor="#399de5"] ;
144 -> 146 ;
147 [label="glucose <= 157.5\ngini = 0.219\nsamples = 16\nvalue = [14, 2]\nclass = NoDiabetis", fillcolor="#e99355"] ;
133 -> 147 ;
148 [label="bmi <= 43.4\ngini = 0.124\nsamples = 15\nvalue = [14, 1]\nclass = NoDiabetis", fillcolor="#e78a47"] ;
147 -> 148 ;
149 [label="gini = 0.0\nsamples = 13\nvalue = [13, 0]\nclass = NoDiabetis", fillcolor="#e58139"] ;
148 -> 149 ;
150 [label="glucose <= 148.0\ngini = 0.5\nsamples = 2\nvalue = [1, 1]\nclass = NoDiabetis", fillcolor="#ffffff"] ;
148 -> 150 ;
151 [label="gini = 0.0\nsamples = 1\nvalue = [0, 1]\nclass = Diabetis", fillcolor="#399de5"] ;
150 -> 151 ;
152 [label="gini = 0.0\nsamples = 1\nvalue = [1, 0]\nclass = NoDiabetis", fillcolor="#e58139"] ;
150 -> 152 ;
153 [label="gini = 0.0\nsamples = 1\nvalue = [0, 1]\nclass = Diabetis", fillcolor="#399de5"] ;
147 -> 153 ;
154 [label="gini = 0.0\nsamples = 2\nvalue = [0, 2]\nclass = Diabetis", fillcolor="#399de5"] ;
132 -> 154 ;
155 [label="bmi <= 34.05\ngini = 0.405\nsamples = 46\nvalue = [13, 33]\nclass = Diabetis", fillcolor="#87c4ef"] ;
129 -> 155 ;
156 [label="bp <= 75.0\ngini = 0.49\nsamples = 21\nvalue = [9, 12]\nclass = Diabetis", fillcolor="#cee6f8"] ;
155 -> 156 ;
157 [label="gini = 0.0\nsamples = 4\nvalue = [4, 0]\nclass = NoDiabetis", fillcolor="#e58139"] ;
156 -> 157 ;
158 [label="pedigree <= 0.436\ngini = 0.415\nsamples = 17\nvalue = [5, 12]\nclass = Diabetis", fillcolor="#8bc6f0"] ;
156 -> 158 ;
159 [label="pedigree <= 0.371\ngini = 0.496\nsamples = 11\nvalue = [5, 6]\nclass = Diabetis", fillcolor="#deeffb"] ;
158 -> 159 ;
160 [label="bmi <= 29.7\ngini = 0.444\nsamples = 9\nvalue = [3, 6]\nclass = Diabetis", fillcolor="#9ccef2"] ;
159 -> 160 ;
161 [label="gini = 0.0\nsamples = 3\nvalue = [0, 3]\nclass = Diabetis", fillcolor="#399de5"] ;
160 -> 161 ;
162 [label="bmi <= 32.45\ngini = 0.5\nsamples = 6\nvalue = [3, 3]\nclass = NoDiabetis", fillcolor="#ffffff"] ;
160 -> 162 ;
163 [label="insulin <= 317.5\ngini = 0.375\nsamples = 4\nvalue = [3, 1]\nclass = NoDiabetis", fillcolor="#eeab7b"] ;
162 -> 163 ;
164 [label="gini = 0.0\nsamples = 3\nvalue = [3, 0]\nclass = NoDiabetis", fillcolor="#e58139"] ;
163 -> 164 ;
165 [label="gini = 0.0\nsamples = 1\nvalue = [0, 1]\nclass = Diabetis", fillcolor="#399de5"] ;
163 -> 165 ;
166 [label="gini = 0.0\nsamples = 2\nvalue = [0, 2]\nclass = Diabetis", fillcolor="#399de5"] ;
162 -> 166 ;
167 [label="gini = 0.0\nsamples = 2\nvalue = [2, 0]\nclass = NoDiabetis", fillcolor="#e58139"] ;
159 -> 167 ;
168 [label="gini = 0.0\nsamples = 6\nvalue = [0, 6]\nclass = Diabetis", fillcolor="#399de5"] ;
158 -> 168 ;
169 [label="pedigree <= 1.088\ngini = 0.269\nsamples = 25\nvalue = [4, 21]\nclass = Diabetis", fillcolor="#5fb0ea"] ;
155 -> 169 ;
170 [label="insulin <= 306.5\ngini = 0.172\nsamples = 21\nvalue = [2, 19]\nclass = Diabetis", fillcolor="#4ea7e8"] ;
169 -> 170 ;
171 [label="bmi <= 44.6\ngini = 0.1\nsamples = 19\nvalue = [1, 18]\nclass = Diabetis", fillcolor="#44a2e6"] ;
170 -> 171 ;
172 [label="gini = 0.0\nsamples = 16\nvalue = [0, 16]\nclass = Diabetis", fillcolor="#399de5"] ;
171 -> 172 ;
173 [label="bmi <= 47.5\ngini = 0.444\nsamples = 3\nvalue = [1, 2]\nclass = Diabetis", fillcolor="#9ccef2"] ;
171 -> 173 ;
174 [label="gini = 0.0\nsamples = 1\nvalue = [1, 0]\nclass = NoDiabetis", fillcolor="#e58139"] ;
173 -> 174 ;
175 [label="gini = 0.0\nsamples = 2\nvalue = [0, 2]\nclass = Diabetis", fillcolor="#399de5"] ;
173 -> 175 ;
176 [label="glucose <= 142.0\ngini = 0.5\nsamples = 2\nvalue = [1, 1]\nclass = NoDiabetis", fillcolor="#ffffff"] ;
170 -> 176 ;
177 [label="gini = 0.0\nsamples = 1\nvalue = [0, 1]\nclass = Diabetis", fillcolor="#399de5"] ;
176 -> 177 ;
178 [label="gini = 0.0\nsamples = 1\nvalue = [1, 0]\nclass = NoDiabetis", fillcolor="#e58139"] ;
176 -> 178 ;
179 [label="insulin <= 147.5\ngini = 0.5\nsamples = 4\nvalue = [2, 2]\nclass = NoDiabetis", fillcolor="#ffffff"] ;
169 -> 179 ;
180 [label="gini = 0.0\nsamples = 2\nvalue = [2, 0]\nclass = NoDiabetis", fillcolor="#e58139"] ;
179 -> 180 ;
181 [label="gini = 0.0\nsamples = 2\nvalue = [0, 2]\nclass = Diabetis", fillcolor="#399de5"] ;
179 -> 181 ;
182 [label="pedigree <= 1.157\ngini = 0.219\nsamples = 56\nvalue = [7, 49]\nclass = Diabetis", fillcolor="#55abe9"] ;
128 -> 182 ;
183 [label="pedigree <= 0.343\ngini = 0.147\nsamples = 50\nvalue = [4, 46]\nclass = Diabetis", fillcolor="#4aa6e7"] ;
182 -> 183 ;
184 [label="age <= 48.5\ngini = 0.332\nsamples = 19\nvalue = [4, 15]\nclass = Diabetis", fillcolor="#6eb7ec"] ;
183 -> 184 ;
185 [label="glucose <= 177.0\ngini = 0.219\nsamples = 16\nvalue = [2, 14]\nclass = Diabetis", fillcolor="#55abe9"] ;
184 -> 185 ;
186 [label="gini = 0.0\nsamples = 9\nvalue = [0, 9]\nclass = Diabetis", fillcolor="#399de5"] ;
185 -> 186 ;
187 [label="glucose <= 179.5\ngini = 0.408\nsamples = 7\nvalue = [2, 5]\nclass = Diabetis", fillcolor="#88c4ef"] ;
185 -> 187 ;
188 [label="gini = 0.0\nsamples = 1\nvalue = [1, 0]\nclass = NoDiabetis", fillcolor="#e58139"] ;
187 -> 188 ;
189 [label="glucose <= 187.5\ngini = 0.278\nsamples = 6\nvalue = [1, 5]\nclass = Diabetis", fillcolor="#61b1ea"] ;
187 -> 189 ;
190 [label="gini = 0.0\nsamples = 4\nvalue = [0, 4]\nclass = Diabetis", fillcolor="#399de5"] ;
189 -> 190 ;
191 [label="pregnant <= 4.5\ngini = 0.5\nsamples = 2\nvalue = [1, 1]\nclass = NoDiabetis", fillcolor="#ffffff"] ;
189 -> 191 ;
192 [label="gini = 0.0\nsamples = 1\nvalue = [1, 0]\nclass = NoDiabetis", fillcolor="#e58139"] ;
191 -> 192 ;
193 [label="gini = 0.0\nsamples = 1\nvalue = [0, 1]\nclass = Diabetis", fillcolor="#399de5"] ;
191 -> 193 ;
194 [label="bmi <= 34.85\ngini = 0.444\nsamples = 3\nvalue = [2, 1]\nclass = NoDiabetis", fillcolor="#f2c09c"] ;
184 -> 194 ;
195 [label="gini = 0.0\nsamples = 2\nvalue = [2, 0]\nclass = NoDiabetis", fillcolor="#e58139"] ;
194 -> 195 ;
196 [label="gini = 0.0\nsamples = 1\nvalue = [0, 1]\nclass = Diabetis", fillcolor="#399de5"] ;
194 -> 196 ;
197 [label="gini = 0.0\nsamples = 31\nvalue = [0, 31]\nclass = Diabetis", fillcolor="#399de5"] ;
183 -> 197 ;
198 [label="glucose <= 182.0\ngini = 0.5\nsamples = 6\nvalue = [3, 3]\nclass = NoDiabetis", fillcolor="#ffffff"] ;
182 -> 198 ;
199 [label="bmi <= 43.25\ngini = 0.375\nsamples = 4\nvalue = [1, 3]\nclass = Diabetis", fillcolor="#7bbeee"] ;
198 -> 199 ;
200 [label="gini = 0.0\nsamples = 3\nvalue = [0, 3]\nclass = Diabetis", fillcolor="#399de5"] ;
199 -> 200 ;
201 [label="gini = 0.0\nsamples = 1\nvalue = [1, 0]\nclass = NoDiabetis", fillcolor="#e58139"] ;
199 -> 201 ;
202 [label="gini = 0.0\nsamples = 2\nvalue = [2, 0]\nclass = NoDiabetis", fillcolor="#e58139"] ;
198 -> 202 ;
}digraph Tree {
node [shape=box, style="filled", color="black"] ;
0 [label="glucose <= 129.5\ngini = 0.449\nsamples = 537\nvalue = [354, 183]\nclass = NoDiabetis", fillcolor="#f2c29f"] ;
1 [label="bmi <= 26.3\ngini = 0.329\nsamples = 357\nvalue = [283, 74]\nclass = NoDiabetis", fillcolor="#eca26d"] ;
0 -> 1 [labeldistance=2.5, labelangle=45, headlabel="True"] ;
2 [label="bmi <= 9.1\ngini = 0.06\nsamples = 97\nvalue = [94, 3]\nclass = NoDiabetis", fillcolor="#e6853f"] ;
1 -> 2 ;
3 [label="pregnant <= 7.5\ngini = 0.444\nsamples = 6\nvalue = [4, 2]\nclass = NoDiabetis", fillcolor="#f2c09c"] ;
2 -> 3 ;
4 [label="gini = 0.0\nsamples = 4\nvalue = [4, 0]\nclass = NoDiabetis", fillcolor="#e58139"] ;
3 -> 4 ;
5 [label="gini = 0.0\nsamples = 2\nvalue = [0, 2]\nclass = Diabetis", fillcolor="#399de5"] ;
3 -> 5 ;
6 [label="pedigree <= 0.669\ngini = 0.022\nsamples = 91\nvalue = [90, 1]\nclass = NoDiabetis", fillcolor="#e5823b"] ;
2 -> 6 ;
7 [label="gini = 0.0\nsamples = 76\nvalue = [76, 0]\nclass = NoDiabetis", fillcolor="#e58139"] ;
6 -> 7 ;
8 [label="pedigree <= 0.705\ngini = 0.124\nsamples = 15\nvalue = [14, 1]\nclass = NoDiabetis", fillcolor="#e78a47"] ;
6 -> 8 ;
9 [label="gini = 0.0\nsamples = 1\nvalue = [0, 1]\nclass = Diabetis", fillcolor="#399de5"] ;
8 -> 9 ;
10 [label="gini = 0.0\nsamples = 14\nvalue = [14, 0]\nclass = NoDiabetis", fillcolor="#e58139"] ;
8 -> 10 ;
11 [label="age <= 27.5\ngini = 0.397\nsamples = 260\nvalue = [189, 71]\nclass = NoDiabetis", fillcolor="#efb083"] ;
1 -> 11 ;
12 [label="bmi <= 45.4\ngini = 0.243\nsamples = 120\nvalue = [103, 17]\nclass = NoDiabetis", fillcolor="#e9965a"] ;
11 -> 12 ;
13 [label="bp <= 12.0\ngini = 0.212\nsamples = 116\nvalue = [102, 14]\nclass = NoDiabetis", fillcolor="#e99254"] ;
12 -> 13 ;
14 [label="gini = 0.0\nsamples = 1\nvalue = [0, 1]\nclass = Diabetis", fillcolor="#399de5"] ;
13 -> 14 ;
15 [label="pregnant <= 7.0\ngini = 0.201\nsamples = 115\nvalue = [102, 13]\nclass = NoDiabetis", fillcolor="#e89152"] ;
13 -> 15 ;
16 [label="pedigree <= 1.272\ngini = 0.188\nsamples = 114\nvalue = [102, 12]\nclass = NoDiabetis", fillcolor="#e89050"] ;
15 -> 16 ;
17 [label="bmi <= 30.95\ngini = 0.165\nsamples = 110\nvalue = [100, 10]\nclass = NoDiabetis", fillcolor="#e88e4d"] ;
16 -> 17 ;
18 [label="gini = 0.0\nsamples = 43\nvalue = [43, 0]\nclass = NoDiabetis", fillcolor="#e58139"] ;
17 -> 18 ;
19 [label="bp <= 53.0\ngini = 0.254\nsamples = 67\nvalue = [57, 10]\nclass = NoDiabetis", fillcolor="#ea975c"] ;
17 -> 19 ;
20 [label="pedigree <= 0.264\ngini = 0.5\nsamples = 6\nvalue = [3, 3]\nclass = NoDiabetis", fillcolor="#ffffff"] ;
19 -> 20 ;
21 [label="gini = 0.0\nsamples = 2\nvalue = [0, 2]\nclass = Diabetis", fillcolor="#399de5"] ;
20 -> 21 ;
22 [label="glucose <= 125.5\ngini = 0.375\nsamples = 4\nvalue = [3, 1]\nclass = NoDiabetis", fillcolor="#eeab7b"] ;
20 -> 22 ;
23 [label="gini = 0.0\nsamples = 3\nvalue = [3, 0]\nclass = NoDiabetis", fillcolor="#e58139"] ;
22 -> 23 ;
24 [label="gini = 0.0\nsamples = 1\nvalue = [0, 1]\nclass = Diabetis", fillcolor="#399de5"] ;
22 -> 24 ;
25 [label="pedigree <= 0.652\ngini = 0.203\nsamples = 61\nvalue = [54, 7]\nclass = NoDiabetis", fillcolor="#e89153"] ;
19 -> 25 ;
26 [label="insulin <= 36.5\ngini = 0.15\nsamples = 49\nvalue = [45, 4]\nclass = NoDiabetis", fillcolor="#e78c4b"] ;
25 -> 26 ;
27 [label="insulin <= 34.0\ngini = 0.32\nsamples = 20\nvalue = [16, 4]\nclass = NoDiabetis", fillcolor="#eca06a"] ;
26 -> 27 ;
28 [label="glucose <= 111.5\ngini = 0.266\nsamples = 19\nvalue = [16, 3]\nclass = NoDiabetis", fillcolor="#ea995e"] ;
27 -> 28 ;
29 [label="bmi <= 37.95\ngini = 0.142\nsamples = 13\nvalue = [12, 1]\nclass = NoDiabetis", fillcolor="#e78c49"] ;
28 -> 29 ;
30 [label="gini = 0.0\nsamples = 11\nvalue = [11, 0]\nclass = NoDiabetis", fillcolor="#e58139"] ;
29 -> 30 ;
31 [label="insulin <= 9.0\ngini = 0.5\nsamples = 2\nvalue = [1, 1]\nclass = NoDiabetis", fillcolor="#ffffff"] ;
29 -> 31 ;
32 [label="gini = 0.0\nsamples = 1\nvalue = [0, 1]\nclass = Diabetis", fillcolor="#399de5"] ;
31 -> 32 ;
33 [label="gini = 0.0\nsamples = 1\nvalue = [1, 0]\nclass = NoDiabetis", fillcolor="#e58139"] ;
31 -> 33 ;
34 [label="bp <= 72.0\ngini = 0.444\nsamples = 6\nvalue = [4, 2]\nclass = NoDiabetis", fillcolor="#f2c09c"] ;
28 -> 34 ;
35 [label="gini = 0.0\nsamples = 3\nvalue = [3, 0]\nclass = NoDiabetis", fillcolor="#e58139"] ;
34 -> 35 ;
36 [label="pedigree <= 0.172\ngini = 0.444\nsamples = 3\nvalue = [1, 2]\nclass = Diabetis", fillcolor="#9ccef2"] ;
34 -> 36 ;
37 [label="gini = 0.0\nsamples = 1\nvalue = [1, 0]\nclass = NoDiabetis", fillcolor="#e58139"] ;
36 -> 37 ;
38 [label="gini = 0.0\nsamples = 2\nvalue = [0, 2]\nclass = Diabetis", fillcolor="#399de5"] ;
36 -> 38 ;
39 [label="gini = 0.0\nsamples = 1\nvalue = [0, 1]\nclass = Diabetis", fillcolor="#399de5"] ;
27 -> 39 ;
40 [label="gini = 0.0\nsamples = 29\nvalue = [29, 0]\nclass = NoDiabetis", fillcolor="#e58139"] ;
26 -> 40 ;
41 [label="insulin <= 65.5\ngini = 0.375\nsamples = 12\nvalue = [9, 3]\nclass = NoDiabetis", fillcolor="#eeab7b"] ;
25 -> 41 ;
42 [label="gini = 0.0\nsamples = 7\nvalue = [7, 0]\nclass = NoDiabetis", fillcolor="#e58139"] ;
41 -> 42 ;
43 [label="bmi <= 38.55\ngini = 0.48\nsamples = 5\nvalue = [2, 3]\nclass = Diabetis", fillcolor="#bddef6"] ;
41 -> 43 ;
44 [label="gini = 0.0\nsamples = 3\nvalue = [0, 3]\nclass = Diabetis", fillcolor="#399de5"] ;
43 -> 44 ;
45 [label="gini = 0.0\nsamples = 2\nvalue = [2, 0]\nclass = NoDiabetis", fillcolor="#e58139"] ;
43 -> 45 ;
46 [label="pedigree <= 1.496\ngini = 0.5\nsamples = 4\nvalue = [2, 2]\nclass = NoDiabetis", fillcolor="#ffffff"] ;
16 -> 46 ;
47 [label="gini = 0.0\nsamples = 2\nvalue = [0, 2]\nclass = Diabetis", fillcolor="#399de5"] ;
46 -> 47 ;
48 [label="gini = 0.0\nsamples = 2\nvalue = [2, 0]\nclass = NoDiabetis", fillcolor="#e58139"] ;
46 -> 48 ;
49 [label="gini = 0.0\nsamples = 1\nvalue = [0, 1]\nclass = Diabetis", fillcolor="#399de5"] ;
15 -> 49 ;
50 [label="insulin <= 185.0\ngini = 0.375\nsamples = 4\nvalue = [1, 3]\nclass = Diabetis", fillcolor="#7bbeee"] ;
12 -> 50 ;
51 [label="gini = 0.0\nsamples = 3\nvalue = [0, 3]\nclass = Diabetis", fillcolor="#399de5"] ;
50 -> 51 ;
52 [label="gini = 0.0\nsamples = 1\nvalue = [1, 0]\nclass = NoDiabetis", fillcolor="#e58139"] ;
50 -> 52 ;
53 [label="pedigree <= 0.563\ngini = 0.474\nsamples = 140\nvalue = [86, 54]\nclass = NoDiabetis", fillcolor="#f5d0b5"] ;
11 -> 53 ;
54 [label="glucose <= 101.5\ngini = 0.408\nsamples = 98\nvalue = [70, 28]\nclass = NoDiabetis", fillcolor="#efb388"] ;
53 -> 54 ;
55 [label="bp <= 27.0\ngini = 0.208\nsamples = 34\nvalue = [30, 4]\nclass = NoDiabetis", fillcolor="#e89253"] ;
54 -> 55 ;
56 [label="gini = 0.0\nsamples = 1\nvalue = [0, 1]\nclass = Diabetis", fillcolor="#399de5"] ;
55 -> 56 ;
57 [label="age <= 42.5\ngini = 0.165\nsamples = 33\nvalue = [30, 3]\nclass = NoDiabetis", fillcolor="#e88e4d"] ;
55 -> 57 ;
58 [label="gini = 0.0\nsamples = 23\nvalue = [23, 0]\nclass = NoDiabetis", fillcolor="#e58139"] ;
57 -> 58 ;
59 [label="pedigree <= 0.383\ngini = 0.42\nsamples = 10\nvalue = [7, 3]\nclass = NoDiabetis", fillcolor="#f0b78e"] ;
57 -> 59 ;
60 [label="pedigree <= 0.214\ngini = 0.5\nsamples = 6\nvalue = [3, 3]\nclass = NoDiabetis", fillcolor="#ffffff"] ;
59 -> 60 ;
61 [label="gini = 0.0\nsamples = 2\nvalue = [2, 0]\nclass = NoDiabetis", fillcolor="#e58139"] ;
60 -> 61 ;
62 [label="glucose <= 76.0\ngini = 0.375\nsamples = 4\nvalue = [1, 3]\nclass = Diabetis", fillcolor="#7bbeee"] ;
60 -> 62 ;
63 [label="gini = 0.0\nsamples = 1\nvalue = [1, 0]\nclass = NoDiabetis", fillcolor="#e58139"] ;
62 -> 63 ;
64 [label="gini = 0.0\nsamples = 3\nvalue = [0, 3]\nclass = Diabetis", fillcolor="#399de5"] ;
62 -> 64 ;
65 [label="gini = 0.0\nsamples = 4\nvalue = [4, 0]\nclass = NoDiabetis", fillcolor="#e58139"] ;
59 -> 65 ;
66 [label="bp <= 67.0\ngini = 0.469\nsamples = 64\nvalue = [40, 24]\nclass = NoDiabetis", fillcolor="#f5cdb0"] ;
54 -> 66 ;
67 [label="bp <= 58.0\ngini = 0.465\nsamples = 19\nvalue = [7, 12]\nclass = Diabetis", fillcolor="#acd6f4"] ;
66 -> 67 ;
68 [label="bmi <= 30.05\ngini = 0.245\nsamples = 7\nvalue = [6, 1]\nclass = NoDiabetis", fillcolor="#e9965a"] ;
67 -> 68 ;
69 [label="bmi <= 29.15\ngini = 0.5\nsamples = 2\nvalue = [1, 1]\nclass = NoDiabetis", fillcolor="#ffffff"] ;
68 -> 69 ;
70 [label="gini = 0.0\nsamples = 1\nvalue = [1, 0]\nclass = NoDiabetis", fillcolor="#e58139"] ;
69 -> 70 ;
71 [label="gini = 0.0\nsamples = 1\nvalue = [0, 1]\nclass = Diabetis", fillcolor="#399de5"] ;
69 -> 71 ;
72 [label="gini = 0.0\nsamples = 5\nvalue = [5, 0]\nclass = NoDiabetis", fillcolor="#e58139"] ;
68 -> 72 ;
73 [label="pedigree <= 0.425\ngini = 0.153\nsamples = 12\nvalue = [1, 11]\nclass = Diabetis", fillcolor="#4ba6e7"] ;
67 -> 73 ;
74 [label="gini = 0.0\nsamples = 11\nvalue = [0, 11]\nclass = Diabetis", fillcolor="#399de5"] ;
73 -> 74 ;
75 [label="gini = 0.0\nsamples = 1\nvalue = [1, 0]\nclass = NoDiabetis", fillcolor="#e58139"] ;
73 -> 75 ;
76 [label="bmi <= 43.1\ngini = 0.391\nsamples = 45\nvalue = [33, 12]\nclass = NoDiabetis", fillcolor="#eeaf81"] ;
66 -> 76 ;
77 [label="glucose <= 102.5\ngini = 0.337\nsamples = 42\nvalue = [33, 9]\nclass = NoDiabetis", fillcolor="#eca36f"] ;
76 -> 77 ;
78 [label="gini = 0.0\nsamples = 2\nvalue = [0, 2]\nclass = Diabetis", fillcolor="#399de5"] ;
77 -> 78 ;
79 [label="bmi <= 34.6\ngini = 0.289\nsamples = 40\nvalue = [33, 7]\nclass = NoDiabetis", fillcolor="#eb9c63"] ;
77 -> 79 ;
80 [label="age <= 35.0\ngini = 0.434\nsamples = 22\nvalue = [15, 7]\nclass = NoDiabetis", fillcolor="#f1bc95"] ;
79 -> 80 ;
81 [label="gini = 0.0\nsamples = 6\nvalue = [6, 0]\nclass = NoDiabetis", fillcolor="#e58139"] ;
80 -> 81 ;
82 [label="glucose <= 123.5\ngini = 0.492\nsamples = 16\nvalue = [9, 7]\nclass = NoDiabetis", fillcolor="#f9e3d3"] ;
80 -> 82 ;
83 [label="pedigree <= 0.375\ngini = 0.426\nsamples = 13\nvalue = [9, 4]\nclass = NoDiabetis", fillcolor="#f1b991"] ;
82 -> 83 ;
84 [label="pedigree <= 0.258\ngini = 0.298\nsamples = 11\nvalue = [9, 2]\nclass = NoDiabetis", fillcolor="#eb9d65"] ;
83 -> 84 ;
85 [label="gini = 0.0\nsamples = 5\nvalue = [5, 0]\nclass = NoDiabetis", fillcolor="#e58139"] ;
84 -> 85 ;
86 [label="bmi <= 32.0\ngini = 0.444\nsamples = 6\nvalue = [4, 2]\nclass = NoDiabetis", fillcolor="#f2c09c"] ;
84 -> 86 ;
87 [label="glucose <= 118.0\ngini = 0.444\nsamples = 3\nvalue = [1, 2]\nclass = Diabetis", fillcolor="#9ccef2"] ;
86 -> 87 ;
88 [label="gini = 0.0\nsamples = 2\nvalue = [0, 2]\nclass = Diabetis", fillcolor="#399de5"] ;
87 -> 88 ;
89 [label="gini = 0.0\nsamples = 1\nvalue = [1, 0]\nclass = NoDiabetis", fillcolor="#e58139"] ;
87 -> 89 ;
90 [label="gini = 0.0\nsamples = 3\nvalue = [3, 0]\nclass = NoDiabetis", fillcolor="#e58139"] ;
86 -> 90 ;
91 [label="gini = 0.0\nsamples = 2\nvalue = [0, 2]\nclass = Diabetis", fillcolor="#399de5"] ;
83 -> 91 ;
92 [label="gini = 0.0\nsamples = 3\nvalue = [0, 3]\nclass = Diabetis", fillcolor="#399de5"] ;
82 -> 92 ;
93 [label="gini = 0.0\nsamples = 18\nvalue = [18, 0]\nclass = NoDiabetis", fillcolor="#e58139"] ;
79 -> 93 ;
94 [label="gini = 0.0\nsamples = 3\nvalue = [0, 3]\nclass = Diabetis", fillcolor="#399de5"] ;
76 -> 94 ;
95 [label="pregnant <= 8.5\ngini = 0.472\nsamples = 42\nvalue = [16, 26]\nclass = Diabetis", fillcolor="#b3d9f5"] ;
53 -> 95 ;
96 [label="bp <= 87.0\ngini = 0.5\nsamples = 33\nvalue = [16, 17]\nclass = Diabetis", fillcolor="#f3f9fd"] ;
95 -> 96 ;
97 [label="glucose <= 97.0\ngini = 0.477\nsamples = 28\nvalue = [11, 17]\nclass = Diabetis", fillcolor="#b9dcf6"] ;
96 -> 97 ;
98 [label="gini = 0.0\nsamples = 4\nvalue = [4, 0]\nclass = NoDiabetis", fillcolor="#e58139"] ;
97 -> 98 ;
99 [label="glucose <= 116.5\ngini = 0.413\nsamples = 24\nvalue = [7, 17]\nclass = Diabetis", fillcolor="#8bc5f0"] ;
97 -> 99 ;
100 [label="pedigree <= 1.395\ngini = 0.165\nsamples = 11\nvalue = [1, 10]\nclass = Diabetis", fillcolor="#4da7e8"] ;
99 -> 100 ;
101 [label="gini = 0.0\nsamples = 10\nvalue = [0, 10]\nclass = Diabetis", fillcolor="#399de5"] ;
100 -> 101 ;
102 [label="gini = 0.0\nsamples = 1\nvalue = [1, 0]\nclass = NoDiabetis", fillcolor="#e58139"] ;
100 -> 102 ;
103 [label="insulin <= 78.0\ngini = 0.497\nsamples = 13\nvalue = [6, 7]\nclass = Diabetis", fillcolor="#e3f1fb"] ;
99 -> 103 ;
104 [label="gini = 0.0\nsamples = 3\nvalue = [3, 0]\nclass = NoDiabetis", fillcolor="#e58139"] ;
103 -> 104 ;
105 [label="glucose <= 123.5\ngini = 0.42\nsamples = 10\nvalue = [3, 7]\nclass = Diabetis", fillcolor="#8ec7f0"] ;
103 -> 105 ;
106 [label="age <= 33.5\ngini = 0.5\nsamples = 6\nvalue = [3, 3]\nclass = NoDiabetis", fillcolor="#ffffff"] ;
105 -> 106 ;
107 [label="age <= 28.5\ngini = 0.375\nsamples = 4\nvalue = [1, 3]\nclass = Diabetis", fillcolor="#7bbeee"] ;
106 -> 107 ;
108 [label="gini = 0.0\nsamples = 1\nvalue = [1, 0]\nclass = NoDiabetis", fillcolor="#e58139"] ;
107 -> 108 ;
109 [label="gini = 0.0\nsamples = 3\nvalue = [0, 3]\nclass = Diabetis", fillcolor="#399de5"] ;
107 -> 109 ;
110 [label="gini = 0.0\nsamples = 2\nvalue = [2, 0]\nclass = NoDiabetis", fillcolor="#e58139"] ;
106 -> 110 ;
111 [label="gini = 0.0\nsamples = 4\nvalue = [0, 4]\nclass = Diabetis", fillcolor="#399de5"] ;
105 -> 111 ;
112 [label="gini = 0.0\nsamples = 5\nvalue = [5, 0]\nclass = NoDiabetis", fillcolor="#e58139"] ;
96 -> 112 ;
113 [label="gini = 0.0\nsamples = 9\nvalue = [0, 9]\nclass = Diabetis", fillcolor="#399de5"] ;
95 -> 113 ;
114 [label="bmi <= 27.85\ngini = 0.478\nsamples = 180\nvalue = [71, 109]\nclass = Diabetis", fillcolor="#baddf6"] ;
0 -> 114 [labeldistance=2.5, labelangle=-45, headlabel="False"] ;
115 [label="glucose <= 145.5\ngini = 0.375\nsamples = 36\nvalue = [27, 9]\nclass = NoDiabetis", fillcolor="#eeab7b"] ;
114 -> 115 ;
116 [label="age <= 59.5\ngini = 0.1\nsamples = 19\nvalue = [18, 1]\nclass = NoDiabetis", fillcolor="#e68844"] ;
115 -> 116 ;
117 [label="gini = 0.0\nsamples = 16\nvalue = [16, 0]\nclass = NoDiabetis", fillcolor="#e58139"] ;
116 -> 117 ;
118 [label="bmi <= 25.25\ngini = 0.444\nsamples = 3\nvalue = [2, 1]\nclass = NoDiabetis", fillcolor="#f2c09c"] ;
116 -> 118 ;
119 [label="gini = 0.0\nsamples = 1\nvalue = [0, 1]\nclass = Diabetis", fillcolor="#399de5"] ;
118 -> 119 ;
120 [label="gini = 0.0\nsamples = 2\nvalue = [2, 0]\nclass = NoDiabetis", fillcolor="#e58139"] ;
118 -> 120 ;
121 [label="bmi <= 23.1\ngini = 0.498\nsamples = 17\nvalue = [9, 8]\nclass = NoDiabetis", fillcolor="#fcf1e9"] ;
115 -> 121 ;
122 [label="gini = 0.0\nsamples = 3\nvalue = [3, 0]\nclass = NoDiabetis", fillcolor="#e58139"] ;
121 -> 122 ;
123 [label="bmi <= 25.55\ngini = 0.49\nsamples = 14\nvalue = [6, 8]\nclass = Diabetis", fillcolor="#cee6f8"] ;
121 -> 123 ;
124 [label="gini = 0.0\nsamples = 6\nvalue = [0, 6]\nclass = Diabetis", fillcolor="#399de5"] ;
123 -> 124 ;
125 [label="glucose <= 156.0\ngini = 0.375\nsamples = 8\nvalue = [6, 2]\nclass = NoDiabetis", fillcolor="#eeab7b"] ;
123 -> 125 ;
126 [label="gini = 0.0\nsamples = 2\nvalue = [0, 2]\nclass = Diabetis", fillcolor="#399de5"] ;
125 -> 126 ;
127 [label="gini = 0.0\nsamples = 6\nvalue = [6, 0]\nclass = NoDiabetis", fillcolor="#e58139"] ;
125 -> 127 ;
128 [label="glucose <= 158.5\ngini = 0.424\nsamples = 144\nvalue = [44, 100]\nclass = Diabetis", fillcolor="#90c8f0"] ;
114 -> 128 ;
129 [label="age <= 30.5\ngini = 0.487\nsamples = 88\nvalue = [37, 51]\nclass = Diabetis", fillcolor="#c9e4f8"] ;
128 -> 129 ;
130 [label="bp <= 23.0\ngini = 0.49\nsamples = 42\nvalue = [24, 18]\nclass = NoDiabetis", fillcolor="#f8e0ce"] ;
129 -> 130 ;
131 [label="gini = 0.0\nsamples = 4\nvalue = [0, 4]\nclass = Diabetis", fillcolor="#399de5"] ;
130 -> 131 ;
132 [label="bp <= 88.0\ngini = 0.465\nsamples = 38\nvalue = [24, 14]\nclass = NoDiabetis", fillcolor="#f4caac"] ;
130 -> 132 ;
133 [label="bp <= 72.0\ngini = 0.444\nsamples = 36\nvalue = [24, 12]\nclass = NoDiabetis", fillcolor="#f2c09c"] ;
132 -> 133 ;
134 [label="bmi <= 33.75\ngini = 0.5\nsamples = 20\nvalue = [10, 10]\nclass = NoDiabetis", fillcolor="#ffffff"] ;
133 -> 134 ;
135 [label="bmi <= 31.05\ngini = 0.397\nsamples = 11\nvalue = [8, 3]\nclass = NoDiabetis", fillcolor="#efb083"] ;
134 -> 135 ;
136 [label="insulin <= 229.0\ngini = 0.5\nsamples = 6\nvalue = [3, 3]\nclass = NoDiabetis", fillcolor="#ffffff"] ;
135 -> 136 ;
137 [label="bp <= 67.0\ngini = 0.375\nsamples = 4\nvalue = [3, 1]\nclass = NoDiabetis", fillcolor="#eeab7b"] ;
136 -> 137 ;
138 [label="gini = 0.0\nsamples = 3\nvalue = [3, 0]\nclass = NoDiabetis", fillcolor="#e58139"] ;
137 -> 138 ;
139 [label="gini = 0.0\nsamples = 1\nvalue = [0, 1]\nclass = Diabetis", fillcolor="#399de5"