digraph Tree {
node [shape=box, style="filled, rounded", color="black", fontname=helvetica] ;
edge [fontname=helvetica] ;
0 [label="Glucose <= 123.5\ngini = 0.454\nsamples = 537\nvalue = [350, 187]\nclass = NoD", fillcolor="#f3c4a3"] ;
1 [label="Age <= 28.5\ngini = 0.272\nsamples = 314\nvalue = [263, 51]\nclass = NoD", fillcolor="#ea995f"] ;
0 -> 1 [labeldistance=2.5, labelangle=45, headlabel="True"] ;
2 [label="BMI <= 49.1\ngini = 0.096\nsamples = 178\nvalue = [169, 9]\nclass = NoD", fillcolor="#e68844"] ;
1 -> 2 ;
3 [label="Pregnancies <= 7.5\ngini = 0.086\nsamples = 177\nvalue = [169, 8]\nclass = NoD", fillcolor="#e68742"] ;
2 -> 3 ;
4 [label="BMI <= 30.95\ngini = 0.076\nsamples = 176\nvalue = [169, 7]\nclass = NoD", fillcolor="#e68641"] ;
3 -> 4 ;
5 [label="gini = 0.0\nsamples = 106\nvalue = [106, 0]\nclass = NoD", fillcolor="#e58139"] ;
4 -> 5 ;
6 [label="BloodPressure <= 22.0\ngini = 0.18\nsamples = 70\nvalue = [63, 7]\nclass = NoD", fillcolor="#e88f4f"] ;
4 -> 6 ;
7 [label="gini = 0.0\nsamples = 1\nvalue = [0, 1]\nclass = Diabetis", fillcolor="#399de5"] ;
6 -> 7 ;
8 [label="BMI <= 31.1\ngini = 0.159\nsamples = 69\nvalue = [63, 6]\nclass = NoD", fillcolor="#e78d4c"] ;
6 -> 8 ;
9 [label="gini = 0.0\nsamples = 1\nvalue = [0, 1]\nclass = Diabetis", fillcolor="#399de5"] ;
8 -> 9 ;
10 [label="DiabetesPedigreeFunction <= 0.5\ngini = 0.136\nsamples = 68\nvalue = [63, 5]\nclass = NoD", fillcolor="#e78b49"] ;
8 -> 10 ;
11 [label="BMI <= 31.8\ngini = 0.04\nsamples = 49\nvalue = [48, 1]\nclass = NoD", fillcolor="#e6843d"] ;
10 -> 11 ;
12 [label="Age <= 24.5\ngini = 0.444\nsamples = 3\nvalue = [2, 1]\nclass = NoD", fillcolor="#f2c09c"] ;
11 -> 12 ;
13 [label="gini = 0.0\nsamples = 2\nvalue = [2, 0]\nclass = NoD", fillcolor="#e58139"] ;
12 -> 13 ;
14 [label="gini = 0.0\nsamples = 1\nvalue = [0, 1]\nclass = Diabetis", fillcolor="#399de5"] ;
12 -> 14 ;
15 [label="gini = 0.0\nsamples = 46\nvalue = [46, 0]\nclass = NoD", fillcolor="#e58139"] ;
11 -> 15 ;
16 [label="DiabetesPedigreeFunction <= 0.506\ngini = 0.332\nsamples = 19\nvalue = [15, 4]\nclass = NoD", fillcolor="#eca36e"] ;
10 -> 16 ;
17 [label="gini = 0.0\nsamples = 1\nvalue = [0, 1]\nclass = Diabetis", fillcolor="#399de5"] ;
16 -> 17 ;
18 [label="BloodPressure <= 67.0\ngini = 0.278\nsamples = 18\nvalue = [15, 3]\nclass = NoD", fillcolor="#ea9a61"] ;
16 -> 18 ;
19 [label="BMI <= 34.25\ngini = 0.444\nsamples = 9\nvalue = [6, 3]\nclass = NoD", fillcolor="#f2c09c"] ;
18 -> 19 ;
20 [label="gini = 0.0\nsamples = 2\nvalue = [0, 2]\nclass = Diabetis", fillcolor="#399de5"] ;
19 -> 20 ;
21 [label="DiabetesPedigreeFunction <= 0.741\ngini = 0.245\nsamples = 7\nvalue = [6, 1]\nclass = NoD", fillcolor="#e9965a"] ;
19 -> 21 ;
22 [label="gini = 0.0\nsamples = 5\nvalue = [5, 0]\nclass = NoD", fillcolor="#e58139"] ;
21 -> 22 ;
23 [label="Age <= 26.5\ngini = 0.5\nsamples = 2\nvalue = [1, 1]\nclass = NoD", fillcolor="#ffffff"] ;
21 -> 23 ;
24 [label="gini = 0.0\nsamples = 1\nvalue = [0, 1]\nclass = Diabetis", fillcolor="#399de5"] ;
23 -> 24 ;
25 [label="gini = 0.0\nsamples = 1\nvalue = [1, 0]\nclass = NoD", fillcolor="#e58139"] ;
23 -> 25 ;
26 [label="gini = 0.0\nsamples = 9\nvalue = [9, 0]\nclass = NoD", fillcolor="#e58139"] ;
18 -> 26 ;
27 [label="gini = 0.0\nsamples = 1\nvalue = [0, 1]\nclass = Diabetis", fillcolor="#399de5"] ;
3 -> 27 ;
28 [label="gini = 0.0\nsamples = 1\nvalue = [0, 1]\nclass = Diabetis", fillcolor="#399de5"] ;
2 -> 28 ;
29 [label="BMI <= 26.95\ngini = 0.427\nsamples = 136\nvalue = [94, 42]\nclass = NoD", fillcolor="#f1b991"] ;
1 -> 29 ;
30 [label="gini = 0.0\nsamples = 28\nvalue = [28, 0]\nclass = NoD", fillcolor="#e58139"] ;
29 -> 30 ;
31 [label="DiabetesPedigreeFunction <= 0.625\ngini = 0.475\nsamples = 108\nvalue = [66, 42]\nclass = NoD", fillcolor="#f6d1b7"] ;
29 -> 31 ;
32 [label="Glucose <= 111.5\ngini = 0.397\nsamples = 77\nvalue = [56, 21]\nclass = NoD", fillcolor="#efb083"] ;
31 -> 32 ;
33 [label="BMI <= 27.65\ngini = 0.311\nsamples = 57\nvalue = [46, 11]\nclass = NoD", fillcolor="#eb9f68"] ;
32 -> 33 ;
34 [label="gini = 0.0\nsamples = 2\nvalue = [0, 2]\nclass = Diabetis", fillcolor="#399de5"] ;
33 -> 34 ;
35 [label="Glucose <= 28.5\ngini = 0.274\nsamples = 55\nvalue = [46, 9]\nclass = NoD", fillcolor="#ea9a60"] ;
33 -> 35 ;
36 [label="gini = 0.0\nsamples = 1\nvalue = [0, 1]\nclass = Diabetis", fillcolor="#399de5"] ;
35 -> 36 ;
37 [label="Pregnancies <= 13.5\ngini = 0.252\nsamples = 54\nvalue = [46, 8]\nclass = NoD", fillcolor="#ea975b"] ;
35 -> 37 ;
38 [label="Glucose <= 93.5\ngini = 0.229\nsamples = 53\nvalue = [46, 7]\nclass = NoD", fillcolor="#e99457"] ;
37 -> 38 ;
39 [label="gini = 0.0\nsamples = 18\nvalue = [18, 0]\nclass = NoD", fillcolor="#e58139"] ;
38 -> 39 ;
40 [label="BloodPressure <= 15.0\ngini = 0.32\nsamples = 35\nvalue = [28, 7]\nclass = NoD", fillcolor="#eca06a"] ;
38 -> 40 ;
41 [label="gini = 0.0\nsamples = 1\nvalue = [0, 1]\nclass = Diabetis", fillcolor="#399de5"] ;
40 -> 41 ;
42 [label="BloodPressure <= 73.0\ngini = 0.291\nsamples = 34\nvalue = [28, 6]\nclass = NoD", fillcolor="#eb9c63"] ;
40 -> 42 ;
43 [label="gini = 0.0\nsamples = 13\nvalue = [13, 0]\nclass = NoD", fillcolor="#e58139"] ;
42 -> 43 ;
44 [label="Glucose <= 95.5\ngini = 0.408\nsamples = 21\nvalue = [15, 6]\nclass = NoD", fillcolor="#efb388"] ;
42 -> 44 ;
45 [label="gini = 0.0\nsamples = 1\nvalue = [0, 1]\nclass = Diabetis", fillcolor="#399de5"] ;
44 -> 45 ;
46 [label="BMI <= 39.35\ngini = 0.375\nsamples = 20\nvalue = [15, 5]\nclass = NoD", fillcolor="#eeab7b"] ;
44 -> 46 ;
47 [label="Age <= 38.0\ngini = 0.291\nsamples = 17\nvalue = [14, 3]\nclass = NoD", fillcolor="#eb9c63"] ;
46 -> 47 ;
48 [label="Pregnancies <= 5.5\ngini = 0.48\nsamples = 5\nvalue = [3, 2]\nclass = NoD", fillcolor="#f6d5bd"] ;
47 -> 48 ;
49 [label="gini = 0.0\nsamples = 3\nvalue = [3, 0]\nclass = NoD", fillcolor="#e58139"] ;
48 -> 49 ;
50 [label="gini = 0.0\nsamples = 2\nvalue = [0, 2]\nclass = Diabetis", fillcolor="#399de5"] ;
48 -> 50 ;
51 [label="Glucose <= 98.0\ngini = 0.153\nsamples = 12\nvalue = [11, 1]\nclass = NoD", fillcolor="#e78c4b"] ;
47 -> 51 ;
52 [label="SkinThickness <= 33.0\ngini = 0.5\nsamples = 2\nvalue = [1, 1]\nclass = NoD", fillcolor="#ffffff"] ;
51 -> 52 ;
53 [label="gini = 0.0\nsamples = 1\nvalue = [0, 1]\nclass = Diabetis", fillcolor="#399de5"] ;
52 -> 53 ;
54 [label="gini = 0.0\nsamples = 1\nvalue = [1, 0]\nclass = NoD", fillcolor="#e58139"] ;
52 -> 54 ;
55 [label="gini = 0.0\nsamples = 10\nvalue = [10, 0]\nclass = NoD", fillcolor="#e58139"] ;
51 -> 55 ;
56 [label="Age <= 40.0\ngini = 0.444\nsamples = 3\nvalue = [1, 2]\nclass = Diabetis", fillcolor="#9ccef2"] ;
46 -> 56 ;
57 [label="gini = 0.0\nsamples = 1\nvalue = [1, 0]\nclass = NoD", fillcolor="#e58139"] ;
56 -> 57 ;
58 [label="gini = 0.0\nsamples = 2\nvalue = [0, 2]\nclass = Diabetis", fillcolor="#399de5"] ;
56 -> 58 ;
59 [label="gini = 0.0\nsamples = 1\nvalue = [0, 1]\nclass = Diabetis", fillcolor="#399de5"] ;
37 -> 59 ;
60 [label="Glucose <= 119.5\ngini = 0.5\nsamples = 20\nvalue = [10, 10]\nclass = NoD", fillcolor="#ffffff"] ;
32 -> 60 ;
61 [label="BloodPressure <= 90.0\ngini = 0.426\nsamples = 13\nvalue = [4, 9]\nclass = Diabetis", fillcolor="#91c9f1"] ;
60 -> 61 ;
62 [label="DiabetesPedigreeFunction <= 0.254\ngini = 0.298\nsamples = 11\nvalue = [2, 9]\nclass = Diabetis", fillcolor="#65b3eb"] ;
61 -> 62 ;
63 [label="BMI <= 34.5\ngini = 0.444\nsamples = 3\nvalue = [2, 1]\nclass = NoD", fillcolor="#f2c09c"] ;
62 -> 63 ;
64 [label="gini = 0.0\nsamples = 1\nvalue = [0, 1]\nclass = Diabetis", fillcolor="#399de5"] ;
63 -> 64 ;
65 [label="gini = 0.0\nsamples = 2\nvalue = [2, 0]\nclass = NoD", fillcolor="#e58139"] ;
63 -> 65 ;
66 [label="gini = 0.0\nsamples = 8\nvalue = [0, 8]\nclass = Diabetis", fillcolor="#399de5"] ;
62 -> 66 ;
67 [label="gini = 0.0\nsamples = 2\nvalue = [2, 0]\nclass = NoD", fillcolor="#e58139"] ;
61 -> 67 ;
68 [label="DiabetesPedigreeFunction <= 0.199\ngini = 0.245\nsamples = 7\nvalue = [6, 1]\nclass = NoD", fillcolor="#e9965a"] ;
60 -> 68 ;
69 [label="gini = 0.0\nsamples = 1\nvalue = [0, 1]\nclass = Diabetis", fillcolor="#399de5"] ;
68 -> 69 ;
70 [label="gini = 0.0\nsamples = 6\nvalue = [6, 0]\nclass = NoD", fillcolor="#e58139"] ;
68 -> 70 ;
71 [label="Pregnancies <= 4.5\ngini = 0.437\nsamples = 31\nvalue = [10, 21]\nclass = Diabetis", fillcolor="#97ccf1"] ;
31 -> 71 ;
72 [label="Insulin <= 133.0\ngini = 0.473\nsamples = 13\nvalue = [8, 5]\nclass = NoD", fillcolor="#f5d0b5"] ;
71 -> 72 ;
73 [label="Age <= 58.0\ngini = 0.32\nsamples = 10\nvalue = [8, 2]\nclass = NoD", fillcolor="#eca06a"] ;
72 -> 73 ;
74 [label="Age <= 36.5\ngini = 0.198\nsamples = 9\nvalue = [8, 1]\nclass = NoD", fillcolor="#e89152"] ;
73 -> 74 ;
75 [label="gini = 0.0\nsamples = 6\nvalue = [6, 0]\nclass = NoD", fillcolor="#e58139"] ;
74 -> 75 ;
76 [label="Age <= 41.0\ngini = 0.444\nsamples = 3\nvalue = [2, 1]\nclass = NoD", fillcolor="#f2c09c"] ;
74 -> 76 ;
77 [label="gini = 0.0\nsamples = 1\nvalue = [0, 1]\nclass = Diabetis", fillcolor="#399de5"] ;
76 -> 77 ;
78 [label="gini = 0.0\nsamples = 2\nvalue = [2, 0]\nclass = NoD", fillcolor="#e58139"] ;
76 -> 78 ;
79 [label="gini = 0.0\nsamples = 1\nvalue = [0, 1]\nclass = Diabetis", fillcolor="#399de5"] ;
73 -> 79 ;
80 [label="gini = 0.0\nsamples = 3\nvalue = [0, 3]\nclass = Diabetis", fillcolor="#399de5"] ;
72 -> 80 ;
81 [label="BloodPressure <= 87.0\ngini = 0.198\nsamples = 18\nvalue = [2, 16]\nclass = Diabetis", fillcolor="#52a9e8"] ;
71 -> 81 ;
82 [label="Glucose <= 86.5\ngini = 0.111\nsamples = 17\nvalue = [1, 16]\nclass = Diabetis", fillcolor="#45a3e7"] ;
81 -> 82 ;
83 [label="Age <= 38.5\ngini = 0.5\nsamples = 2\nvalue = [1, 1]\nclass = NoD", fillcolor="#ffffff"] ;
82 -> 83 ;
84 [label="gini = 0.0\nsamples = 1\nvalue = [1, 0]\nclass = NoD", fillcolor="#e58139"] ;
83 -> 84 ;
85 [label="gini = 0.0\nsamples = 1\nvalue = [0, 1]\nclass = Diabetis", fillcolor="#399de5"] ;
83 -> 85 ;
86 [label="gini = 0.0\nsamples = 15\nvalue = [0, 15]\nclass = Diabetis", fillcolor="#399de5"] ;
82 -> 86 ;
87 [label="gini = 0.0\nsamples = 1\nvalue = [1, 0]\nclass = NoD", fillcolor="#e58139"] ;
81 -> 87 ;
88 [label="Glucose <= 158.5\ngini = 0.476\nsamples = 223\nvalue = [87, 136]\nclass = Diabetis", fillcolor="#b8dcf6"] ;
0 -> 88 [labeldistance=2.5, labelangle=-45, headlabel="False"] ;
89 [label="BMI <= 41.65\ngini = 0.5\nsamples = 152\nvalue = [76, 76]\nclass = NoD", fillcolor="#ffffff"] ;
88 -> 89 ;
90 [label="DiabetesPedigreeFunction <= 0.718\ngini = 0.494\nsamples = 133\nvalue = [74, 59]\nclass = NoD", fillcolor="#fae5d7"] ;
89 -> 90 ;
91 [label="DiabetesPedigreeFunction <= 0.218\ngini = 0.473\nsamples = 112\nvalue = [69, 43]\nclass = NoD", fillcolor="#f5d0b4"] ;
90 -> 91 ;
92 [label="SkinThickness <= 22.5\ngini = 0.293\nsamples = 28\nvalue = [23, 5]\nclass = NoD", fillcolor="#eb9c64"] ;
91 -> 92 ;
93 [label="Pregnancies <= 5.5\ngini = 0.095\nsamples = 20\nvalue = [19, 1]\nclass = NoD", fillcolor="#e68843"] ;
92 -> 93 ;
94 [label="gini = 0.0\nsamples = 16\nvalue = [16, 0]\nclass = NoD", fillcolor="#e58139"] ;
93 -> 94 ;
95 [label="Glucose <= 142.0\ngini = 0.375\nsamples = 4\nvalue = [3, 1]\nclass = NoD", fillcolor="#eeab7b"] ;
93 -> 95 ;
96 [label="gini = 0.0\nsamples = 3\nvalue = [3, 0]\nclass = NoD", fillcolor="#e58139"] ;
95 -> 96 ;
97 [label="gini = 0.0\nsamples = 1\nvalue = [0, 1]\nclass = Diabetis", fillcolor="#399de5"] ;
95 -> 97 ;
98 [label="Glucose <= 151.0\ngini = 0.5\nsamples = 8\nvalue = [4, 4]\nclass = NoD", fillcolor="#ffffff"] ;
92 -> 98 ;
99 [label="DiabetesPedigreeFunction <= 0.157\ngini = 0.444\nsamples = 6\nvalue = [2, 4]\nclass = Diabetis", fillcolor="#9ccef2"] ;
98 -> 99 ;
100 [label="gini = 0.0\nsamples = 3\nvalue = [0, 3]\nclass = Diabetis", fillcolor="#399de5"] ;
99 -> 100 ;
101 [label="SkinThickness <= 39.0\ngini = 0.444\nsamples = 3\nvalue = [2, 1]\nclass = NoD", fillcolor="#f2c09c"] ;
99 -> 101 ;
102 [label="gini = 0.0\nsamples = 2\nvalue = [2, 0]\nclass = NoD", fillcolor="#e58139"] ;
101 -> 102 ;
103 [label="gini = 0.0\nsamples = 1\nvalue = [0, 1]\nclass = Diabetis", fillcolor="#399de5"] ;
101 -> 103 ;
104 [label="gini = 0.0\nsamples = 2\nvalue = [2, 0]\nclass = NoD", fillcolor="#e58139"] ;
98 -> 104 ;
105 [label="Age <= 41.5\ngini = 0.495\nsamples = 84\nvalue = [46, 38]\nclass = NoD", fillcolor="#fae9dd"] ;
91 -> 105 ;
106 [label="BloodPressure <= 55.0\ngini = 0.456\nsamples = 57\nvalue = [37, 20]\nclass = NoD", fillcolor="#f3c5a4"] ;
105 -> 106 ;
107 [label="DiabetesPedigreeFunction <= 0.633\ngini = 0.32\nsamples = 5\nvalue = [1, 4]\nclass = Diabetis", fillcolor="#6ab6ec"] ;
106 -> 107 ;
108 [label="gini = 0.0\nsamples = 4\nvalue = [0, 4]\nclass = Diabetis", fillcolor="#399de5"] ;
107 -> 108 ;
109 [label="gini = 0.0\nsamples = 1\nvalue = [1, 0]\nclass = NoD", fillcolor="#e58139"] ;
107 -> 109 ;
110 [label="Insulin <= 117.5\ngini = 0.426\nsamples = 52\nvalue = [36, 16]\nclass = NoD", fillcolor="#f1b991"] ;
106 -> 110 ;
111 [label="Age <= 22.5\ngini = 0.493\nsamples = 25\nvalue = [14, 11]\nclass = NoD", fillcolor="#f9e4d5"] ;
110 -> 111 ;
112 [label="gini = 0.0\nsamples = 5\nvalue = [5, 0]\nclass = NoD", fillcolor="#e58139"] ;
111 -> 112 ;
113 [label="Pregnancies <= 9.0\ngini = 0.495\nsamples = 20\nvalue = [9, 11]\nclass = Diabetis", fillcolor="#dbedfa"] ;
111 -> 113 ;
114 [label="DiabetesPedigreeFunction <= 0.581\ngini = 0.457\nsamples = 17\nvalue = [6, 11]\nclass = Diabetis", fillcolor="#a5d2f3"] ;
113 -> 114 ;
115 [label="BloodPressure <= 83.0\ngini = 0.391\nsamples = 15\nvalue = [4, 11]\nclass = Diabetis", fillcolor="#81c1ee"] ;
114 -> 115 ;
116 [label="BMI <= 29.4\ngini = 0.278\nsamples = 12\nvalue = [2, 10]\nclass = Diabetis", fillcolor="#61b1ea"] ;
115 -> 116 ;
117 [label="gini = 0.0\nsamples = 6\nvalue = [0, 6]\nclass = Diabetis", fillcolor="#399de5"] ;
116 -> 117 ;
118 [label="BMI <= 31.1\ngini = 0.444\nsamples = 6\nvalue = [2, 4]\nclass = Diabetis", fillcolor="#9ccef2"] ;
116 -> 118 ;
119 [label="gini = 0.0\nsamples = 1\nvalue = [1, 0]\nclass = NoD", fillcolor="#e58139"] ;
118 -> 119 ;
120 [label="Age <= 25.5\ngini = 0.32\nsamples = 5\nvalue = [1, 4]\nclass = Diabetis", fillcolor="#6ab6ec"] ;
118 -> 120 ;
121 [label="gini = 0.0\nsamples = 1\nvalue = [1, 0]\nclass = NoD", fillcolor="#e58139"] ;
120 -> 121 ;
122 [label="gini = 0.0\nsamples = 4\nvalue = [0, 4]\nclass = Diabetis", fillcolor="#399de5"] ;
120 -> 122 ;
123 [label="Insulin <= 44.0\ngini = 0.444\nsamples = 3\nvalue = [2, 1]\nclass = NoD", fillcolor="#f2c09c"] ;
115 -> 123 ;
124 [label="gini = 0.0\nsamples = 2\nvalue = [2, 0]\nclass = NoD", fillcolor="#e58139"] ;
123 -> 124 ;
125 [label="gini = 0.0\nsamples = 1\nvalue = [0, 1]\nclass = Diabetis", fillcolor="#399de5"] ;
123 -> 125 ;
126 [label="gini = 0.0\nsamples = 2\nvalue = [2, 0]\nclass = NoD", fillcolor="#e58139"] ;
114 -> 126 ;
127 [label="gini = 0.0\nsamples = 3\nvalue = [3, 0]\nclass = NoD", fillcolor="#e58139"] ;
113 -> 127 ;
128 [label="SkinThickness <= 29.5\ngini = 0.302\nsamples = 27\nvalue = [22, 5]\nclass = NoD", fillcolor="#eb9e66"] ;
110 -> 128 ;
129 [label="gini = 0.0\nsamples = 12\nvalue = [12, 0]\nclass = NoD", fillcolor="#e58139"] ;
128 -> 129 ;
130 [label="Age <= 34.5\ngini = 0.444\nsamples = 15\nvalue = [10, 5]\nclass = NoD", fillcolor="#f2c09c"] ;
128 -> 130 ;
131 [label="Pregnancies <= 2.5\ngini = 0.355\nsamples = 13\nvalue = [10, 3]\nclass = NoD", fillcolor="#eda774"] ;
130 -> 131 ;
132 [label="BMI <= 36.0\ngini = 0.5\nsamples = 6\nvalue = [3, 3]\nclass = NoD", fillcolor="#ffffff"] ;
131 -> 132 ;
133 [label="Insulin <= 131.5\ngini = 0.375\nsamples = 4\nvalue = [1, 3]\nclass = Diabetis", fillcolor="#7bbeee"] ;
132 -> 133 ;
134 [label="gini = 0.0\nsamples = 1\nvalue = [1, 0]\nclass = NoD", fillcolor="#e58139"] ;
133 -> 134 ;
135 [label="gini = 0.0\nsamples = 3\nvalue = [0, 3]\nclass = Diabetis", fillcolor="#399de5"] ;
133 -> 135 ;
136 [label="gini = 0.0\nsamples = 2\nvalue = [2, 0]\nclass = NoD", fillcolor="#e58139"] ;
132 -> 136 ;
137 [label="gini = 0.0\nsamples = 7\nvalue = [7, 0]\nclass = NoD", fillcolor="#e58139"] ;
131 -> 137 ;
138 [label="gini = 0.0\nsamples = 2\nvalue = [0, 2]\nclass = Diabetis", fillcolor="#399de5"] ;
130 -> 138 ;
139 [label="BMI <= 29.45\ngini = 0.444\nsamples = 27\nvalue = [9, 18]\nclass = Diabetis", fillcolor="#9ccef2"] ;
105 -> 139 ;
140 [label="Age <= 54.5\ngini = 0.48\nsamples = 15\nvalue = [9, 6]\nclass = NoD", fillcolor="#f6d5bd"] ;
139 -> 140 ;
141 [label="BloodPressure <= 75.0\ngini = 0.278\nsamples = 6\nvalue = [1, 5]\nclass = Diabetis", fillcolor="#61b1ea"] ;
140 -> 141 ;
142 [label="gini = 0.0\nsamples = 1\nvalue = [1, 0]\nclass = NoD", fillcolor="#e58139"] ;
141 -> 142 ;
143 [label="gini = 0.0\nsamples = 5\nvalue = [0, 5]\nclass = Diabetis", fillcolor="#399de5"] ;
141 -> 143 ;
144 [label="BloodPressure <= 75.0\ngini = 0.198\nsamples = 9\nvalue = [8, 1]\nclass = NoD", fillcolor="#e89152"] ;
140 -> 144 ;
145 [label="Age <= 60.5\ngini = 0.444\nsamples = 3\nvalue = [2, 1]\nclass = NoD", fillcolor="#f2c09c"] ;
144 -> 145 ;
146 [label="gini = 0.0\nsamples = 1\nvalue = [0, 1]\nclass = Diabetis", fillcolor="#399de5"] ;
145 -> 146 ;
147 [label="gini = 0.0\nsamples = 2\nvalue = [2, 0]\nclass = NoD", fillcolor="#e58139"] ;
145 -> 147 ;
148 [label="gini = 0.0\nsamples = 6\nvalue = [6, 0]\nclass = NoD", fillcolor="#e58139"] ;
144 -> 148 ;
149 [label="gini = 0.0\nsamples = 12\nvalue = [0, 12]\nclass = Diabetis", fillcolor="#399de5"] ;
139 -> 149 ;
150 [label="Glucose <= 139.0\ngini = 0.363\nsamples = 21\nvalue = [5, 16]\nclass = Diabetis", fillcolor="#77bced"] ;
90 -> 150 ;
151 [label="gini = 0.0\nsamples = 11\nvalue = [0, 11]\nclass = Diabetis", fillcolor="#399de5"] ;
150 -> 151 ;
152 [label="Pregnancies <= 2.5\ngini = 0.5\nsamples = 10\nvalue = [5, 5]\nclass = NoD", fillcolor="#ffffff"] ;
150 -> 152 ;
153 [label="gini = 0.0\nsamples = 3\nvalue = [3, 0]\nclass = NoD", fillcolor="#e58139"] ;
152 -> 153 ;
154 [label="DiabetesPedigreeFunction <= 0.821\ngini = 0.408\nsamples = 7\nvalue = [2, 5]\nclass = Diabetis", fillcolor="#88c4ef"] ;
152 -> 154 ;
155 [label="gini = 0.0\nsamples = 4\nvalue = [0, 4]\nclass = Diabetis", fillcolor="#399de5"] ;
154 -> 155 ;
156 [label="Age <= 36.0\ngini = 0.444\nsamples = 3\nvalue = [2, 1]\nclass = NoD", fillcolor="#f2c09c"] ;
154 -> 156 ;
157 [label="gini = 0.0\nsamples = 1\nvalue = [0, 1]\nclass = Diabetis", fillcolor="#399de5"] ;
156 -> 157 ;
158 [label="gini = 0.0\nsamples = 2\nvalue = [2, 0]\nclass = NoD", fillcolor="#e58139"] ;
156 -> 158 ;
159 [label="DiabetesPedigreeFunction <= 0.197\ngini = 0.188\nsamples = 19\nvalue = [2, 17]\nclass = Diabetis", fillcolor="#50a9e8"] ;
89 -> 159 ;
160 [label="gini = 0.0\nsamples = 1\nvalue = [1, 0]\nclass = NoD", fillcolor="#e58139"] ;
159 -> 160 ;
161 [label="SkinThickness <= 50.0\ngini = 0.105\nsamples = 18\nvalue = [1, 17]\nclass = Diabetis", fillcolor="#45a3e7"] ;
159 -> 161 ;
162 [label="gini = 0.0\nsamples = 17\nvalue = [0, 17]\nclass = Diabetis", fillcolor="#399de5"] ;
161 -> 162 ;
163 [label="gini = 0.0\nsamples = 1\nvalue = [1, 0]\nclass = NoD", fillcolor="#e58139"] ;
161 -> 163 ;
164 [label="Age <= 59.5\ngini = 0.262\nsamples = 71\nvalue = [11, 60]\nclass = Diabetis", fillcolor="#5dafea"] ;
88 -> 164 ;
165 [label="Insulin <= 629.5\ngini = 0.19\nsamples = 66\nvalue = [7, 59]\nclass = Diabetis", fillcolor="#50a9e8"] ;
164 -> 165 ;
166 [label="BMI <= 23.1\ngini = 0.146\nsamples = 63\nvalue = [5, 58]\nclass = Diabetis", fillcolor="#4aa5e7"] ;
165 -> 166 ;
167 [label="gini = 0.0\nsamples = 1\nvalue = [1, 0]\nclass = NoD", fillcolor="#e58139"] ;
166 -> 167 ;
168 [label="Glucose <= 188.5\ngini = 0.121\nsamples = 62\nvalue = [4, 58]\nclass = Diabetis", fillcolor="#47a4e7"] ;
166 -> 168 ;
169 [label="BMI <= 46.8\ngini = 0.038\nsamples = 52\nvalue = [1, 51]\nclass = Diabetis", fillcolor="#3d9fe6"] ;
168 -> 169 ;
170 [label="gini = 0.0\nsamples = 49\nvalue = [0, 49]\nclass = Diabetis", fillcolor="#399de5"] ;
169 -> 170 ;
171 [label="Insulin <= 177.5\ngini = 0.444\nsamples = 3\nvalue = [1, 2]\nclass = Diabetis", fillcolor="#9ccef2"] ;
169 -> 171 ;
172 [label="gini = 0.0\nsamples = 2\nvalue = [0, 2]\nclass = Diabetis", fillcolor="#399de5"] ;
171 -> 172 ;
173 [label="gini = 0.0\nsamples = 1\nvalue = [1, 0]\nclass = NoD", fillcolor="#e58139"] ;
171 -> 173 ;
174 [label="Glucose <= 193.5\ngini = 0.42\nsamples = 10\nvalue = [3, 7]\nclass = Diabetis", fillcolor="#8ec7f0"] ;
168 -> 174 ;
175 [label="gini = 0.0\nsamples = 3\nvalue = [3, 0]\nclass = NoD", fillcolor="#e58139"] ;
174 -> 175 ;
176 [label="gini = 0.0\nsamples = 7\nvalue = [0, 7]\nclass = Diabetis", fillcolor="#399de5"] ;
174 -> 176 ;
177 [label="Age <= 45.0\ngini = 0.444\nsamples = 3\nvalue = [2, 1]\nclass = NoD", fillcolor="#f2c09c"] ;
165 -> 177 ;
178 [label="gini = 0.0\nsamples = 2\nvalue = [2, 0]\nclass = NoD", fillcolor="#e58139"] ;
177 -> 178 ;
179 [label="gini = 0.0\nsamples = 1\nvalue = [0, 1]\nclass = Diabetis", fillcolor="#399de5"] ;
177 -> 179 ;
180 [label="Insulin <= 247.5\ngini = 0.32\nsamples = 5\nvalue = [4, 1]\nclass = NoD", fillcolor="#eca06a"] ;
164 -> 180 ;
181 [label="gini = 0.0\nsamples = 4\nvalue = [4, 0]\nclass = NoD", fillcolor="#e58139"] ;
180 -> 181 ;
182 [label="gini = 0.0\nsamples = 1\nvalue = [0, 1]\nclass = Diabetis", fillcolor="#399de5"] ;
180 -> 182 ;
}